digraph Tree {
node [shape=box, style="filled, rounded", color="black", fontname=helvetica] ;
edge [fontname=helvetica] ;
0 [label="Credit_History <= 0.5\ngini = 0.455\nsamples = 665\nvalue = [233, 432]\nclass = Yes", fillcolor="#399de575"] ;
1 [label="LoanAmount <= 82.5\ngini = 0.424\nsamples = 151\nvalue = [105, 46]\nclass = No", fillcolor="#e581398f"] ;
0 -> 1 [labeldistance=2.5, labelangle=45, headlabel="True"] ;
2 [label="Education_Not Graduate <= 0.5\ngini = 0.077\nsamples = 25\nvalue = [24, 1]\nclass = No", fillcolor="#e58139f4"] ;
1 -> 2 ;
3 [label="gini = 0.0\nsamples = 19\nvalue = [19, 0]\nclass = No", fillcolor="#e58139ff"] ;
2 -> 3 ;
4 [label="gini = 0.278\nsamples = 6\nvalue = [5, 1]\nclass = No", fillcolor="#e58139cc"] ;
2 -> 4 ;
5 [label="LoanAmount <= 102.5\ngini = 0.459\nsamples = 126\nvalue = [81, 45]\nclass = No", fillcolor="#e5813971"] ;
1 -> 5 ;
6 [label="gini = 0.469\nsamples = 16\nvalue = [6, 10]\nclass = Yes", fillcolor="#399de566"] ;
5 -> 6 ;
7 [label="gini = 0.434\nsamples = 110\nvalue = [75, 35]\nclass = No", fillcolor="#e5813988"] ;
5 -> 7 ;
8 [label="LoanAmount <= 285.0\ngini = 0.374\nsamples = 514\nvalue = [128, 386]\nclass = Yes", fillcolor="#399de5aa"] ;
0 -> 8 [labeldistance=2.5, labelangle=-45, headlabel="False"] ;
9 [label="Education_Not Graduate <= 0.5\ngini = 0.363\nsamples = 491\nvalue = [117, 374]\nclass = Yes", fillcolor="#399de5af"] ;
8 -> 9 ;
10 [label="gini = 0.332\nsamples = 381\nvalue = [80, 301]\nclass = Yes", fillcolor="#399de5bb"] ;
9 -> 10 ;
11 [label="gini = 0.446\nsamples = 110\nvalue = [37, 73]\nclass = Yes", fillcolor="#399de57e"] ;
9 -> 11 ;
12 [label="Self_Employed_No <= 0.5\ngini = 0.499\nsamples = 23\nvalue = [11, 12]\nclass = Yes", fillcolor="#399de515"] ;
8 -> 12 ;
13 [label="gini = 0.0\nsamples = 4\nvalue = [0, 4]\nclass = Yes", fillcolor="#399de5ff"] ;
12 -> 13 ;
14 [label="gini = 0.488\nsamples = 19\nvalue = [11, 8]\nclass = No", fillcolor="#e5813946"] ;
12 -> 14 ;
}